digraph Tree {
node [shape=box] ;
0 [label="X[1] <= 0.264\nmse = 0.153\nsamples = 244\nvalue = 3.0"] ;
1 [label="X[4] <= 1.715\nmse = 0.078\nsamples = 141\nvalue = 3.189"] ;
0 -> 1 [labeldistance=2.5, labelangle=45, headlabel="True"] ;
2 [label="X[3] <= 0.868\nmse = 0.056\nsamples = 131\nvalue = 3.142"] ;
1 -> 2 ;
3 [label="X[4] <= 0.54\nmse = 0.046\nsamples = 111\nvalue = 3.187"] ;
2 -> 3 ;
4 [label="X[4] <= -0.47\nmse = 0.029\nsamples = 84\nvalue = 3.103"] ;
3 -> 4 ;
5 [label="X[6] <= 0.823\nmse = 0.013\nsamples = 32\nvalue = 2.992"] ;
4 -> 5 ;
6 [label="X[4] <= -0.677\nmse = 0.01\nsamples = 23\nvalue = 3.016"] ;
5 -> 6 ;
7 [label="mse = 0.011\nsamples = 10\nvalue = 2.988"] ;
6 -> 7 ;
8 [label="X[5] <= -0.397\nmse = 0.009\nsamples = 13\nvalue = 3.035"] ;
6 -> 8 ;
9 [label="mse = 0.006\nsamples = 8\nvalue = 3.044"] ;
8 -> 9 ;
10 [label="mse = 0.014\nsamples = 5\nvalue = 3.017"] ;
8 -> 10 ;
11 [label="mse = 0.014\nsamples = 9\nvalue = 2.892"] ;
5 -> 11 ;
12 [label="X[4] <= 0.267\nmse = 0.027\nsamples = 52\nvalue = 3.162"] ;
4 -> 12 ;
13 [label="X[6] <= 0.349\nmse = 0.03\nsamples = 37\nvalue = 3.13"] ;
12 -> 13 ;
14 [label="X[7] <= 0.066\nmse = 0.046\nsamples = 13\nvalue = 3.207"] ;
13 -> 14 ;
15 [label="mse = 0.039\nsamples = 7\nvalue = 3.306"] ;
14 -> 15 ;
16 [label="mse = 0.007\nsamples = 6\nvalue = 3.023"] ;
14 -> 16 ;
17 [label="X[0] <= -0.328\nmse = 0.015\nsamples = 24\nvalue = 3.085"] ;
13 -> 17 ;
18 [label="X[4] <= 0.09\nmse = 0.011\nsamples = 18\nvalue = 3.108"] ;
17 -> 18 ;
19 [label="mse = 0.008\nsamples = 13\nvalue = 3.069"] ;
18 -> 19 ;
20 [label="mse = 0.005\nsamples = 5\nvalue = 3.207"] ;
18 -> 20 ;
21 [label="mse = 0.022\nsamples = 6\nvalue = 2.992"] ;
17 -> 21 ;
22 [label="X[6] <= 0.844\nmse = 0.009\nsamples = 15\nvalue = 3.252"] ;
12 -> 22 ;
23 [label="mse = 0.003\nsamples = 8\nvalue = 3.321"] ;
22 -> 23 ;
24 [label="mse = 0.002\nsamples = 7\nvalue = 3.162"] ;
22 -> 24 ;
25 [label="X[1] <= -0.999\nmse = 0.018\nsamples = 27\nvalue = 3.423"] ;
3 -> 25 ;
26 [label="X[2] <= -0.796\nmse = 0.011\nsamples = 18\nvalue = 3.474"] ;
25 -> 26 ;
27 [label="X[6] <= 1.641\nmse = 0.015\nsamples = 12\nvalue = 3.471"] ;
26 -> 27 ;
28 [label="mse = 0.003\nsamples = 6\nvalue = 3.532"] ;
27 -> 28 ;
29 [label="mse = 0.019\nsamples = 6\nvalue = 3.403"] ;
27 -> 29 ;
30 [label="mse = 0.004\nsamples = 6\nvalue = 3.478"] ;
26 -> 30 ;
31 [label="mse = 0.02\nsamples = 9\nvalue = 3.355"] ;
25 -> 31 ;
32 [label="X[0] <= 0.457\nmse = 0.03\nsamples = 20\nvalue = 2.864"] ;
2 -> 32 ;
33 [label="X[6] <= 0.015\nmse = 0.021\nsamples = 14\nvalue = 2.921"] ;
32 -> 33 ;
34 [label="mse = 0.032\nsamples = 6\nvalue = 2.928"] ;
33 -> 34 ;
35 [label="mse = 0.013\nsamples = 8\nvalue = 2.916"] ;
33 -> 35 ;
36 [label="mse = 0.023\nsamples = 6\nvalue = 2.714"] ;
32 -> 36 ;
37 [label="X[6] <= -0.225\nmse = 0.013\nsamples = 10\nvalue = 3.729"] ;
1 -> 37 ;
38 [label="mse = 0.011\nsamples = 5\nvalue = 3.738"] ;
37 -> 38 ;
39 [label="mse = 0.014\nsamples = 5\nvalue = 3.722"] ;
37 -> 39 ;
40 [label="X[0] <= 0.843\nmse = 0.14\nsamples = 103\nvalue = 2.742"] ;
0 -> 40 [labeldistance=2.5, labelangle=-45, headlabel="False"] ;
41 [label="X[1] <= 0.72\nmse = 0.045\nsamples = 68\nvalue = 2.938"] ;
40 -> 41 ;
42 [label="mse = 0.017\nsamples = 9\nvalue = 3.127"] ;
41 -> 42 ;
43 [label="X[0] <= 0.117\nmse = 0.042\nsamples = 59\nvalue = 2.901"] ;
41 -> 43 ;
44 [label="X[1] <= 1.249\nmse = 0.018\nsamples = 16\nvalue = 3.09"] ;
43 -> 44 ;
45 [label="mse = 0.018\nsamples = 11\nvalue = 3.079"] ;
44 -> 45 ;
46 [label="mse = 0.018\nsamples = 5\nvalue = 3.12"] ;
44 -> 46 ;
47 [label="X[0] <= 0.337\nmse = 0.031\nsamples = 43\nvalue = 2.821"] ;
43 -> 47 ;
48 [label="X[5] <= 1.059\nmse = 0.024\nsamples = 16\nvalue = 2.945"] ;
47 -> 48 ;
49 [label="mse = 0.018\nsamples = 5\nvalue = 2.986"] ;
48 -> 49 ;
50 [label="X[2] <= 1.231\nmse = 0.025\nsamples = 11\nvalue = 2.931"] ;
48 -> 50 ;
51 [label="mse = 0.042\nsamples = 5\nvalue = 2.942"] ;
50 -> 51 ;
52 [label="mse = 0.007\nsamples = 6\nvalue = 2.92"] ;
50 -> 52 ;
53 [label="X[6] <= -0.954\nmse = 0.019\nsamples = 27\nvalue = 2.74"] ;
47 -> 53 ;
54 [label="mse = 0.01\nsamples = 7\nvalue = 2.759"] ;
53 -> 54 ;
55 [label="X[8] <= 0.119\nmse = 0.022\nsamples = 20\nvalue = 2.734"] ;
53 -> 55 ;
56 [label="mse = 0.014\nsamples = 6\nvalue = 2.861"] ;
55 -> 56 ;
57 [label="X[6] <= -0.774\nmse = 0.015\nsamples = 14\nvalue = 2.675"] ;
55 -> 57 ;
58 [label="mse = 0.013\nsamples = 5\nvalue = 2.68"] ;
57 -> 58 ;
59 [label="mse = 0.016\nsamples = 9\nvalue = 2.672"] ;
57 -> 59 ;
60 [label="X[2] <= 1.778\nmse = 0.124\nsamples = 35\nvalue = 2.407"] ;
40 -> 60 ;
61 [label="X[2] <= 1.237\nmse = 0.135\nsamples = 29\nvalue = 2.345"] ;
60 -> 61 ;
62 [label="mse = 0.147\nsamples = 22\nvalue = 2.338"] ;
61 -> 62 ;
63 [label="mse = 0.064\nsamples = 7\nvalue = 2.389"] ;
61 -> 63 ;
64 [label="mse = 0.02\nsamples = 6\nvalue = 2.634"] ;
60 -> 64 ;
}